digraph Tree {
node [shape=box, style="filled, rounded", color="black", fontname=helvetica] ;
edge [fontname=helvetica] ;
0 [label="motor_UPDRS <= 0.5\ngini = 0.652\nsamples = 5875\nvalue = [1873, 2506, 1496]", fillcolor="#e0fbeb"] ;
1 [label="age <= 0.5\ngini = 0.439\nsamples = 2760\nvalue = [1861, 899, 0]", fillcolor="#f2be99"] ;
0 -> 1 [labeldistance=2.5, labelangle=45, headlabel="True"] ;
2 [label="PPE <= 0.5\ngini = 0.344\nsamples = 1390\nvalue = [1083, 307, 0]", fillcolor="#eca571"] ;
1 -> 2 ;
3 [label="RPDE <= 1.5\ngini = 0.276\nsamples = 859\nvalue = [717, 142, 0]", fillcolor="#ea9a60"] ;
2 -> 3 ;
4 [label="RPDE <= 0.5\ngini = 0.278\nsamples = 839\nvalue = [699, 140, 0]", fillcolor="#ea9a61"] ;
3 -> 4 ;
5 [label="gini = 0.282\nsamples = 235\nvalue = [195, 40, 0]", fillcolor="#ea9b62"] ;
4 -> 5 ;
6 [label="gini = 0.276\nsamples = 604\nvalue = [504, 100, 0]", fillcolor="#ea9a60"] ;
4 -> 6 ;
7 [label="gini = 0.18\nsamples = 20\nvalue = [18, 2, 0]", fillcolor="#e88f4f"] ;
3 -> 7 ;
8 [label="PPE <= 1.5\ngini = 0.428\nsamples = 531\nvalue = [366, 165, 0]", fillcolor="#f1ba92"] ;
2 -> 8 ;
9 [label="RPDE <= 0.5\ngini = 0.422\nsamples = 523\nvalue = [365, 158, 0]", fillcolor="#f0b88f"] ;
8 -> 9 ;
10 [label="gini = 0.219\nsamples = 8\nvalue = [7, 1, 0]", fillcolor="#e99355"] ;
9 -> 10 ;
11 [label="RPDE <= 1.5\ngini = 0.424\nsamples = 515\nvalue = [358, 157, 0]", fillcolor="#f0b890"] ;
9 -> 11 ;
12 [label="gini = 0.427\nsamples = 457\nvalue = [316, 141, 0]", fillcolor="#f1b991"] ;
11 -> 12 ;
13 [label="gini = 0.4\nsamples = 58\nvalue = [42, 16, 0]", fillcolor="#efb184"] ;
11 -> 13 ;
14 [label="RPDE <= 1.5\ngini = 0.219\nsamples = 8\nvalue = [1, 7, 0]", fillcolor="#55e993"] ;
8 -> 14 ;
15 [label="gini = 0.0\nsamples = 1\nvalue = [0, 1, 0]", fillcolor="#39e581"] ;
14 -> 15 ;
16 [label="gini = 0.245\nsamples = 7\nvalue = [1, 6, 0]", fillcolor="#5ae996"] ;
14 -> 16 ;
17 [label="RPDE <= 0.5\ngini = 0.491\nsamples = 1370\nvalue = [778, 592, 0]", fillcolor="#f9e1d0"] ;
1 -> 17 ;
18 [label="PPE <= 0.5\ngini = 0.38\nsamples = 110\nvalue = [82, 28, 0]", fillcolor="#eeac7d"] ;
17 -> 18 ;
19 [label="gini = 0.377\nsamples = 103\nvalue = [77, 26, 0]", fillcolor="#eeac7c"] ;
18 -> 19 ;
20 [label="gini = 0.408\nsamples = 7\nvalue = [5, 2, 0]", fillcolor="#efb388"] ;
18 -> 20 ;
21 [label="PPE <= 1.5\ngini = 0.495\nsamples = 1260\nvalue = [696, 564, 0]", fillcolor="#fae7d9"] ;
17 -> 21 ;
22 [label="RPDE <= 1.5\ngini = 0.494\nsamples = 1255\nvalue = [695, 560, 0]", fillcolor="#fae7d9"] ;
21 -> 22 ;
23 [label="PPE <= 0.5\ngini = 0.492\nsamples = 1042\nvalue = [585, 457, 0]", fillcolor="#f9e3d4"] ;
22 -> 23 ;
24 [label="gini = 0.495\nsamples = 572\nvalue = [314, 258, 0]", fillcolor="#fae9dc"] ;
23 -> 24 ;
25 [label="gini = 0.488\nsamples = 470\nvalue = [271, 199, 0]", fillcolor="#f8deca"] ;
23 -> 25 ;
26 [label="PPE <= 0.5\ngini = 0.499\nsamples = 213\nvalue = [110, 103, 0]", fillcolor="#fdf7f2"] ;
22 -> 26 ;
27 [label="gini = 0.491\nsamples = 60\nvalue = [34, 26, 0]", fillcolor="#f9e1d0"] ;
26 -> 27 ;
28 [label="gini = 0.5\nsamples = 153\nvalue = [76, 77, 0]", fillcolor="#fcfffd"] ;
26 -> 28 ;
29 [label="gini = 0.32\nsamples = 5\nvalue = [1, 4, 0]", fillcolor="#6aeca0"] ;
21 -> 29 ;
30 [label="motor_UPDRS <= 1.5\ngini = 0.503\nsamples = 3115\nvalue = [12, 1607, 1496]", fillcolor="#f1fdf6"] ;
0 -> 30 [labeldistance=2.5, labelangle=-45, headlabel="False"] ;
31 [label="PPE <= 1.5\ngini = 0.383\nsamples = 2116\nvalue = [12, 1577, 527]", fillcolor="#7ceeac"] ;
30 -> 31 ;
32 [label="age <= 0.5\ngini = 0.387\nsamples = 2075\nvalue = [12, 1537, 526]", fillcolor="#7eeead"] ;
31 -> 32 ;
33 [label="RPDE <= 1.5\ngini = 0.424\nsamples = 1033\nvalue = [12, 727, 294]", fillcolor="#8bf0b5"] ;
32 -> 33 ;
34 [label="PPE <= 0.5\ngini = 0.479\nsamples = 725\nvalue = [12, 455, 258]", fillcolor="#abf4ca"] ;
33 -> 34 ;
35 [label="RPDE <= 0.5\ngini = 0.476\nsamples = 487\nvalue = [11, 312, 164]", fillcolor="#a4f3c5"] ;
34 -> 35 ;
36 [label="gini = 0.525\nsamples = 75\nvalue = [3, 42, 30]", fillcolor="#caf8dd"] ;
35 -> 36 ;
37 [label="gini = 0.464\nsamples = 412\nvalue = [8, 270, 134]", fillcolor="#9ef2c1"] ;
35 -> 37 ;
38 [label="RPDE <= 0.5\ngini = 0.483\nsamples = 238\nvalue = [1, 143, 94]", fillcolor="#bcf6d4"] ;
34 -> 38 ;
39 [label="gini = 0.32\nsamples = 5\nvalue = [0, 4, 1]", fillcolor="#6aeca0"] ;
38 -> 39 ;
40 [label="gini = 0.485\nsamples = 233\nvalue = [1, 139, 93]", fillcolor="#bef6d6"] ;
38 -> 40 ;
41 [label="PPE <= 0.5\ngini = 0.206\nsamples = 308\nvalue = [0, 272, 36]", fillcolor="#53e892"] ;
33 -> 41 ;
42 [label="gini = 0.434\nsamples = 66\nvalue = [0, 45, 21]", fillcolor="#95f1bc"] ;
41 -> 42 ;
43 [label="gini = 0.116\nsamples = 242\nvalue = [0, 227, 15]", fillcolor="#46e789"] ;
41 -> 43 ;
44 [label="RPDE <= 1.5\ngini = 0.346\nsamples = 1042\nvalue = [0, 810, 232]", fillcolor="#72eca5"] ;
32 -> 44 ;
45 [label="RPDE <= 0.5\ngini = 0.308\nsamples = 931\nvalue = [0, 754, 177]", fillcolor="#67eb9f"] ;
44 -> 45 ;
46 [label="PPE <= 0.5\ngini = 0.202\nsamples = 79\nvalue = [0, 70, 9]", fillcolor="#52e891"] ;
45 -> 46 ;
47 [label="gini = 0.182\nsamples = 69\nvalue = [0, 62, 7]", fillcolor="#4fe88f"] ;
46 -> 47 ;
48 [label="gini = 0.32\nsamples = 10\nvalue = [0, 8, 2]", fillcolor="#6aeca0"] ;
46 -> 48 ;
49 [label="PPE <= 0.5\ngini = 0.317\nsamples = 852\nvalue = [0, 684, 168]", fillcolor="#6aeba0"] ;
45 -> 49 ;
50 [label="gini = 0.334\nsamples = 416\nvalue = [0, 328, 88]", fillcolor="#6eeca3"] ;
49 -> 50 ;
51 [label="gini = 0.3\nsamples = 436\nvalue = [0, 356, 80]", fillcolor="#65eb9d"] ;
49 -> 51 ;
52 [label="PPE <= 0.5\ngini = 0.5\nsamples = 111\nvalue = [0, 56, 55]", fillcolor="#fbfffd"] ;
44 -> 52 ;
53 [label="gini = 0.415\nsamples = 17\nvalue = [0, 5, 12]", fillcolor="#b58bf0"] ;
52 -> 53 ;
54 [label="gini = 0.496\nsamples = 94\nvalue = [0, 51, 43]", fillcolor="#e0fbeb"] ;
52 -> 54 ;
55 [label="age <= 0.5\ngini = 0.048\nsamples = 41\nvalue = [0, 40, 1]", fillcolor="#3ee684"] ;
31 -> 55 ;
56 [label="gini = 0.0\nsamples = 35\nvalue = [0, 35, 0]", fillcolor="#39e581"] ;
55 -> 56 ;
57 [label="gini = 0.278\nsamples = 6\nvalue = [0, 5, 1]", fillcolor="#61ea9a"] ;
55 -> 57 ;
58 [label="age <= 0.5\ngini = 0.058\nsamples = 999\nvalue = [0, 30, 969]", fillcolor="#853fe6"] ;
30 -> 58 ;
59 [label="gini = 0.0\nsamples = 117\nvalue = [0, 0, 117]", fillcolor="#8139e5"] ;
58 -> 59 ;
60 [label="RPDE <= 0.5\ngini = 0.066\nsamples = 882\nvalue = [0, 30, 852]", fillcolor="#8540e6"] ;
58 -> 60 ;
61 [label="gini = 0.0\nsamples = 36\nvalue = [0, 0, 36]", fillcolor="#8139e5"] ;
60 -> 61 ;
62 [label="PPE <= 1.5\ngini = 0.068\nsamples = 846\nvalue = [0, 30, 816]", fillcolor="#8640e6"] ;
60 -> 62 ;
63 [label="PPE <= 0.5\ngini = 0.07\nsamples = 832\nvalue = [0, 30, 802]", fillcolor="#8640e6"] ;
62 -> 63 ;
64 [label="RPDE <= 1.5\ngini = 0.062\nsamples = 282\nvalue = [0, 9, 273]", fillcolor="#8540e6"] ;
63 -> 64 ;
65 [label="gini = 0.067\nsamples = 259\nvalue = [0, 9, 250]", fillcolor="#8640e6"] ;
64 -> 65 ;
66 [label="gini = 0.0\nsamples = 23\nvalue = [0, 0, 23]", fillcolor="#8139e5"] ;
64 -> 66 ;
67 [label="RPDE <= 1.5\ngini = 0.073\nsamples = 550\nvalue = [0, 21, 529]", fillcolor="#8641e6"] ;
63 -> 67 ;
68 [label="gini = 0.074\nsamples = 468\nvalue = [0, 18, 450]", fillcolor="#8641e6"] ;
67 -> 68 ;
69 [label="gini = 0.07\nsamples = 82\nvalue = [0, 3, 79]", fillcolor="#8641e6"] ;
67 -> 69 ;
70 [label="gini = 0.0\nsamples = 14\nvalue = [0, 0, 14]", fillcolor="#8139e5"] ;
62 -> 70 ;
}